digraph Tree {
node [shape=box] ;
0 [label="X[12] <= 0.5\ngini = 0.42\nsamples = 1000\nvalue = [300, 700]"] ;
1 [label="X[0] <= 22.5\ngini = 0.487\nsamples = 606\nvalue = [254, 352]"] ;
0 -> 1 [labeldistance=2.5, labelangle=45, headlabel="True"] ;
2 [label="X[14] <= 0.5\ngini = 0.444\nsamples = 349\nvalue = [116, 233]"] ;
1 -> 2 ;
3 [label="X[0] <= 11.5\ngini = 0.427\nsamples = 330\nvalue = [102, 228]"] ;
2 -> 3 ;
4 [label="X[1] <= 10931.5\ngini = 0.289\nsamples = 97\nvalue = [17, 80]"] ;
3 -> 4 ;
5 [label="X[4] <= 34.5\ngini = 0.266\nsamples = 95\nvalue = [15, 80]"] ;
4 -> 5 ;
6 [label="gini = 0.408\nsamples = 42\nvalue = [12, 30]"] ;
5 -> 6 ;
7 [label="gini = 0.107\nsamples = 53\nvalue = [3, 50]"] ;
5 -> 7 ;
8 [label="gini = 0.0\nsamples = 2\nvalue = [2, 0]"] ;
4 -> 8 ;
9 [label="X[1] <= 1285.5\ngini = 0.463\nsamples = 233\nvalue = [85, 148]"] ;
3 -> 9 ;
10 [label="gini = 0.495\nsamples = 69\nvalue = [38, 31]"] ;
9 -> 10 ;
11 [label="X[36] <= 0.5\ngini = 0.409\nsamples = 164\nvalue = [47, 117]"] ;
9 -> 11 ;
12 [label="X[55] <= 0.5\ngini = 0.438\nsamples = 142\nvalue = [46, 96]"] ;
11 -> 12 ;
13 [label="gini = 0.5\nsamples = 45\nvalue = [22, 23]"] ;
12 -> 13 ;
14 [label="X[3] <= 3.5\ngini = 0.372\nsamples = 97\nvalue = [24, 73]"] ;
12 -> 14 ;
15 [label="gini = 0.435\nsamples = 72\nvalue = [23, 49]"] ;
14 -> 15 ;
16 [label="gini = 0.077\nsamples = 25\nvalue = [1, 24]"] ;
14 -> 16 ;
17 [label="gini = 0.087\nsamples = 22\nvalue = [1, 21]"] ;
11 -> 17 ;
18 [label="gini = 0.388\nsamples = 19\nvalue = [14, 5]"] ;
2 -> 18 ;
19 [label="X[29] <= 0.5\ngini = 0.497\nsamples = 257\nvalue = [138, 119]"] ;
1 -> 19 ;
20 [label="X[15] <= 0.5\ngini = 0.472\nsamples = 89\nvalue = [34, 55]"] ;
19 -> 20 ;
21 [label="gini = 0.359\nsamples = 47\nvalue = [11, 36]"] ;
20 -> 21 ;
22 [label="gini = 0.495\nsamples = 42\nvalue = [23, 19]"] ;
20 -> 22 ;
23 [label="X[0] <= 43.5\ngini = 0.472\nsamples = 168\nvalue = [104, 64]"] ;
19 -> 23 ;
24 [label="X[18] <= 0.5\ngini = 0.495\nsamples = 136\nvalue = [75, 61]"] ;
23 -> 24 ;
25 [label="X[1] <= 8015.5\ngini = 0.499\nsamples = 111\nvalue = [53, 58]"] ;
24 -> 25 ;
26 [label="X[19] <= 0.5\ngini = 0.491\nsamples = 97\nvalue = [42, 55]"] ;
25 -> 26 ;
27 [label="X[7] <= 0.5\ngini = 0.5\nsamples = 83\nvalue = [42, 41]"] ;
26 -> 27 ;
28 [label="gini = 0.412\nsamples = 31\nvalue = [22, 9]"] ;
27 -> 28 ;
29 [label="gini = 0.473\nsamples = 52\nvalue = [20, 32]"] ;
27 -> 29 ;
30 [label="gini = 0.0\nsamples = 14\nvalue = [0, 14]"] ;
26 -> 30 ;
31 [label="gini = 0.337\nsamples = 14\nvalue = [11, 3]"] ;
25 -> 31 ;
32 [label="gini = 0.211\nsamples = 25\nvalue = [22, 3]"] ;
24 -> 32 ;
33 [label="gini = 0.17\nsamples = 32\nvalue = [29, 3]"] ;
23 -> 33 ;
34 [label="X[53] <= 0.5\ngini = 0.206\nsamples = 394\nvalue = [46, 348]"] ;
0 -> 34 [labeldistance=2.5, labelangle=-45, headlabel="False"] ;
35 [label="gini = 0.417\nsamples = 64\nvalue = [19, 45]"] ;
34 -> 35 ;
36 [label="X[4] <= 30.5\ngini = 0.15\nsamples = 330\nvalue = [27, 303]"] ;
34 -> 36 ;
37 [label="X[1] <= 6465.5\ngini = 0.262\nsamples = 116\nvalue = [18, 98]"] ;
36 -> 37 ;
38 [label="X[45] <= 0.5\ngini = 0.215\nsamples = 106\nvalue = [13, 93]"] ;
37 -> 38 ;
39 [label="X[24] <= 0.5\ngini = 0.191\nsamples = 103\nvalue = [11, 92]"] ;
38 -> 39 ;
40 [label="X[16] <= 0.5\ngini = 0.177\nsamples = 102\nvalue = [10, 92]"] ;
39 -> 40 ;
41 [label="X[5] <= 1.5\ngini = 0.139\nsamples = 93\nvalue = [7, 86]"] ;
40 -> 41 ;
42 [label="gini = 0.206\nsamples = 60\nvalue = [7, 53]"] ;
41 -> 42 ;
43 [label="gini = 0.0\nsamples = 33\nvalue = [0, 33]"] ;
41 -> 43 ;
44 [label="gini = 0.444\nsamples = 9\nvalue = [3, 6]"] ;
40 -> 44 ;
45 [label="gini = 0.0\nsamples = 1\nvalue = [1, 0]"] ;
39 -> 45 ;
46 [label="gini = 0.444\nsamples = 3\nvalue = [2, 1]"] ;
38 -> 46 ;
47 [label="gini = 0.5\nsamples = 10\nvalue = [5, 5]"] ;
37 -> 47 ;
48 [label="X[17] <= 0.5\ngini = 0.081\nsamples = 214\nvalue = [9, 205]"] ;
36 -> 48 ;
49 [label="X[5] <= 1.5\ngini = 0.144\nsamples = 115\nvalue = [9, 106]"] ;
48 -> 49 ;
50 [label="X[20] <= 0.5\ngini = 0.065\nsamples = 89\nvalue = [3, 86]"] ;
49 -> 50 ;
51 [label="X[24] <= 0.5\ngini = 0.025\nsamples = 80\nvalue = [1, 79]"] ;
50 -> 51 ;
52 [label="gini = 0.0\nsamples = 75\nvalue = [0, 75]"] ;
51 -> 52 ;
53 [label="gini = 0.32\nsamples = 5\nvalue = [1, 4]"] ;
51 -> 53 ;
54 [label="gini = 0.346\nsamples = 9\nvalue = [2, 7]"] ;
50 -> 54 ;
55 [label="gini = 0.355\nsamples = 26\nvalue = [6, 20]"] ;
49 -> 55 ;
56 [label="gini = 0.0\nsamples = 99\nvalue = [0, 99]"] ;
48 -> 56 ;
}
