digraph Tree {
node [shape=box] ;
0 [label="X[12] <= 0.5\ngini = 0.42\nsamples = 1000\nvalue = [300, 700]"] ;
1 [label="X[0] <= 22.5\ngini = 0.487\nsamples = 606\nvalue = [254, 352]"] ;
0 -> 1 [labeldistance=2.5, labelangle=45, headlabel="True"] ;
2 [label="X[14] <= 0.5\ngini = 0.444\nsamples = 349\nvalue = [116, 233]"] ;
1 -> 2 ;
3 [label="X[0] <= 11.5\ngini = 0.427\nsamples = 330\nvalue = [102, 228]"] ;
2 -> 3 ;
4 [label="X[1] <= 10931.5\ngini = 0.289\nsamples = 97\nvalue = [17, 80]"] ;
3 -> 4 ;
5 [label="X[4] <= 34.5\ngini = 0.266\nsamples = 95\nvalue = [15, 80]"] ;
4 -> 5 ;
6 [label="X[24] <= 0.5\ngini = 0.408\nsamples = 42\nvalue = [12, 30]"] ;
5 -> 6 ;
7 [label="gini = 0.355\nsamples = 39\nvalue = [9, 30]"] ;
6 -> 7 ;
8 [label="gini = 0.0\nsamples = 3\nvalue = [3, 0]"] ;
6 -> 8 ;
9 [label="X[39] <= 0.5\ngini = 0.107\nsamples = 53\nvalue = [3, 50]"] ;
5 -> 9 ;
10 [label="gini = 0.075\nsamples = 51\nvalue = [2, 49]"] ;
9 -> 10 ;
11 [label="gini = 0.5\nsamples = 2\nvalue = [1, 1]"] ;
9 -> 11 ;
12 [label="gini = 0.0\nsamples = 2\nvalue = [2, 0]"] ;
4 -> 12 ;
13 [label="X[1] <= 1285.5\ngini = 0.463\nsamples = 233\nvalue = [85, 148]"] ;
3 -> 13 ;
14 [label="X[49] <= 0.5\ngini = 0.495\nsamples = 69\nvalue = [38, 31]"] ;
13 -> 14 ;
15 [label="X[44] <= 0.5\ngini = 0.491\nsamples = 51\nvalue = [22, 29]"] ;
14 -> 15 ;
16 [label="gini = 0.18\nsamples = 10\nvalue = [1, 9]"] ;
15 -> 16 ;
17 [label="gini = 0.5\nsamples = 41\nvalue = [21, 20]"] ;
15 -> 17 ;
18 [label="X[39] <= 0.5\ngini = 0.198\nsamples = 18\nvalue = [16, 2]"] ;
14 -> 18 ;
19 [label="gini = 0.111\nsamples = 17\nvalue = [16, 1]"] ;
18 -> 19 ;
20 [label="gini = 0.0\nsamples = 1\nvalue = [0, 1]"] ;
18 -> 20 ;
21 [label="X[36] <= 0.5\ngini = 0.409\nsamples = 164\nvalue = [47, 117]"] ;
13 -> 21 ;
22 [label="X[55] <= 0.5\ngini = 0.438\nsamples = 142\nvalue = [46, 96]"] ;
21 -> 22 ;
23 [label="gini = 0.5\nsamples = 45\nvalue = [22, 23]"] ;
22 -> 23 ;
24 [label="gini = 0.372\nsamples = 97\nvalue = [24, 73]"] ;
22 -> 24 ;
25 [label="X[1] <= 1398.0\ngini = 0.087\nsamples = 22\nvalue = [1, 21]"] ;
21 -> 25 ;
26 [label="gini = 0.0\nsamples = 1\nvalue = [1, 0]"] ;
25 -> 26 ;
27 [label="gini = 0.0\nsamples = 21\nvalue = [0, 21]"] ;
25 -> 27 ;
28 [label="X[21] <= 0.5\ngini = 0.388\nsamples = 19\nvalue = [14, 5]"] ;
2 -> 28 ;
29 [label="X[1] <= 386.0\ngini = 0.142\nsamples = 13\nvalue = [12, 1]"] ;
28 -> 29 ;
30 [label="gini = 0.0\nsamples = 1\nvalue = [0, 1]"] ;
29 -> 30 ;
31 [label="gini = 0.0\nsamples = 12\nvalue = [12, 0]"] ;
29 -> 31 ;
32 [label="X[4] <= 32.5\ngini = 0.444\nsamples = 6\nvalue = [2, 4]"] ;
28 -> 32 ;
33 [label="X[9] <= 0.5\ngini = 0.444\nsamples = 3\nvalue = [2, 1]"] ;
32 -> 33 ;
34 [label="gini = 0.0\nsamples = 1\nvalue = [0, 1]"] ;
33 -> 34 ;
35 [label="gini = 0.0\nsamples = 2\nvalue = [2, 0]"] ;
33 -> 35 ;
36 [label="gini = 0.0\nsamples = 3\nvalue = [0, 3]"] ;
32 -> 36 ;
37 [label="X[29] <= 0.5\ngini = 0.497\nsamples = 257\nvalue = [138, 119]"] ;
1 -> 37 ;
38 [label="X[15] <= 0.5\ngini = 0.472\nsamples = 89\nvalue = [34, 55]"] ;
37 -> 38 ;
39 [label="X[59] <= 0.5\ngini = 0.359\nsamples = 47\nvalue = [11, 36]"] ;
38 -> 39 ;
40 [label="X[33] <= 0.5\ngini = 0.472\nsamples = 21\nvalue = [8, 13]"] ;
39 -> 40 ;
41 [label="X[7] <= 0.5\ngini = 0.48\nsamples = 10\nvalue = [6, 4]"] ;
40 -> 41 ;
42 [label="gini = 0.444\nsamples = 6\nvalue = [2, 4]"] ;
41 -> 42 ;
43 [label="gini = 0.0\nsamples = 4\nvalue = [4, 0]"] ;
41 -> 43 ;
44 [label="X[1] <= 1845.5\ngini = 0.298\nsamples = 11\nvalue = [2, 9]"] ;
40 -> 44 ;
45 [label="gini = 0.0\nsamples = 2\nvalue = [2, 0]"] ;
44 -> 45 ;
46 [label="gini = 0.0\nsamples = 9\nvalue = [0, 9]"] ;
44 -> 46 ;
47 [label="X[1] <= 1245.5\ngini = 0.204\nsamples = 26\nvalue = [3, 23]"] ;
39 -> 47 ;
48 [label="gini = 0.0\nsamples = 1\nvalue = [1, 0]"] ;
47 -> 48 ;
49 [label="X[31] <= 0.5\ngini = 0.147\nsamples = 25\nvalue = [2, 23]"] ;
47 -> 49 ;
50 [label="gini = 0.0\nsamples = 20\nvalue = [0, 20]"] ;
49 -> 50 ;
51 [label="gini = 0.48\nsamples = 5\nvalue = [2, 3]"] ;
49 -> 51 ;
52 [label="X[1] <= 5488.0\ngini = 0.495\nsamples = 42\nvalue = [23, 19]"] ;
38 -> 52 ;
53 [label="X[1] <= 2715.5\ngini = 0.491\nsamples = 30\nvalue = [13, 17]"] ;
52 -> 53 ;
54 [label="X[9] <= 0.5\ngini = 0.397\nsamples = 11\nvalue = [8, 3]"] ;
53 -> 54 ;
55 [label="gini = 0.375\nsamples = 4\nvalue = [1, 3]"] ;
54 -> 55 ;
56 [label="gini = 0.0\nsamples = 7\nvalue = [7, 0]"] ;
54 -> 56 ;
57 [label="X[4] <= 22.5\ngini = 0.388\nsamples = 19\nvalue = [5, 14]"] ;
53 -> 57 ;
58 [label="gini = 0.0\nsamples = 4\nvalue = [4, 0]"] ;
57 -> 58 ;
59 [label="gini = 0.124\nsamples = 15\nvalue = [1, 14]"] ;
57 -> 59 ;
60 [label="X[0] <= 27.0\ngini = 0.278\nsamples = 12\nvalue = [10, 2]"] ;
52 -> 60 ;
61 [label="gini = 0.0\nsamples = 1\nvalue = [0, 1]"] ;
60 -> 61 ;
62 [label="X[40] <= 0.5\ngini = 0.165\nsamples = 11\nvalue = [10, 1]"] ;
60 -> 62 ;
63 [label="gini = 0.0\nsamples = 8\nvalue = [8, 0]"] ;
62 -> 63 ;
64 [label="gini = 0.444\nsamples = 3\nvalue = [2, 1]"] ;
62 -> 64 ;
65 [label="X[0] <= 43.5\ngini = 0.472\nsamples = 168\nvalue = [104, 64]"] ;
37 -> 65 ;
66 [label="X[18] <= 0.5\ngini = 0.495\nsamples = 136\nvalue = [75, 61]"] ;
65 -> 66 ;
67 [label="X[1] <= 8015.5\ngini = 0.499\nsamples = 111\nvalue = [53, 58]"] ;
66 -> 67 ;
68 [label="X[19] <= 0.5\ngini = 0.491\nsamples = 97\nvalue = [42, 55]"] ;
67 -> 68 ;
69 [label="gini = 0.5\nsamples = 83\nvalue = [42, 41]"] ;
68 -> 69 ;
70 [label="gini = 0.0\nsamples = 14\nvalue = [0, 14]"] ;
68 -> 70 ;
71 [label="X[38] <= 0.5\ngini = 0.337\nsamples = 14\nvalue = [11, 3]"] ;
67 -> 71 ;
72 [label="gini = 0.153\nsamples = 12\nvalue = [11, 1]"] ;
71 -> 72 ;
73 [label="gini = 0.0\nsamples = 2\nvalue = [0, 2]"] ;
71 -> 73 ;
74 [label="X[2] <= 2.5\ngini = 0.211\nsamples = 25\nvalue = [22, 3]"] ;
66 -> 74 ;
75 [label="X[4] <= 35.0\ngini = 0.48\nsamples = 5\nvalue = [3, 2]"] ;
74 -> 75 ;
76 [label="gini = 0.0\nsamples = 3\nvalue = [3, 0]"] ;
75 -> 76 ;
77 [label="gini = 0.0\nsamples = 2\nvalue = [0, 2]"] ;
75 -> 77 ;
78 [label="X[3] <= 1.5\ngini = 0.095\nsamples = 20\nvalue = [19, 1]"] ;
74 -> 78 ;
79 [label="gini = 0.444\nsamples = 3\nvalue = [2, 1]"] ;
78 -> 79 ;
80 [label="gini = 0.0\nsamples = 17\nvalue = [17, 0]"] ;
78 -> 80 ;
81 [label="X[3] <= 1.5\ngini = 0.17\nsamples = 32\nvalue = [29, 3]"] ;
65 -> 81 ;
82 [label="X[5] <= 1.5\ngini = 0.444\nsamples = 3\nvalue = [1, 2]"] ;
81 -> 82 ;
83 [label="gini = 0.0\nsamples = 2\nvalue = [0, 2]"] ;
82 -> 83 ;
84 [label="gini = 0.0\nsamples = 1\nvalue = [1, 0]"] ;
82 -> 84 ;
85 [label="X[48] <= 0.5\ngini = 0.067\nsamples = 29\nvalue = [28, 1]"] ;
81 -> 85 ;
86 [label="gini = 0.0\nsamples = 25\nvalue = [25, 0]"] ;
85 -> 86 ;
87 [label="X[6] <= 1.5\ngini = 0.375\nsamples = 4\nvalue = [3, 1]"] ;
85 -> 87 ;
88 [label="gini = 0.0\nsamples = 3\nvalue = [3, 0]"] ;
87 -> 88 ;
89 [label="gini = 0.0\nsamples = 1\nvalue = [0, 1]"] ;
87 -> 89 ;
90 [label="X[53] <= 0.5\ngini = 0.206\nsamples = 394\nvalue = [46, 348]"] ;
0 -> 90 [labeldistance=2.5, labelangle=-45, headlabel="False"] ;
91 [label="X[38] <= 0.5\ngini = 0.417\nsamples = 64\nvalue = [19, 45]"] ;
90 -> 91 ;
92 [label="X[4] <= 44.5\ngini = 0.391\nsamples = 60\nvalue = [16, 44]"] ;
91 -> 92 ;
93 [label="X[18] <= 0.5\ngini = 0.444\nsamples = 48\nvalue = [16, 32]"] ;
92 -> 93 ;
94 [label="X[4] <= 34.5\ngini = 0.388\nsamples = 38\nvalue = [10, 28]"] ;
93 -> 94 ;
95 [label="X[0] <= 11.0\ngini = 0.26\nsamples = 26\nvalue = [4, 22]"] ;
94 -> 95 ;
96 [label="gini = 0.0\nsamples = 1\nvalue = [1, 0]"] ;
95 -> 96 ;
97 [label="gini = 0.211\nsamples = 25\nvalue = [3, 22]"] ;
95 -> 97 ;
98 [label="X[3] <= 2.5\ngini = 0.5\nsamples = 12\nvalue = [6, 6]"] ;
94 -> 98 ;
99 [label="gini = 0.0\nsamples = 4\nvalue = [4, 0]"] ;
98 -> 99 ;
100 [label="gini = 0.375\nsamples = 8\nvalue = [2, 6]"] ;
98 -> 100 ;
101 [label="X[1] <= 1367.0\ngini = 0.48\nsamples = 10\nvalue = [6, 4]"] ;
93 -> 101 ;
102 [label="gini = 0.0\nsamples = 3\nvalue = [0, 3]"] ;
101 -> 102 ;
103 [label="X[15] <= 0.5\ngini = 0.245\nsamples = 7\nvalue = [6, 1]"] ;
101 -> 103 ;
104 [label="gini = 0.0\nsamples = 6\nvalue = [6, 0]"] ;
103 -> 104 ;
105 [label="gini = 0.0\nsamples = 1\nvalue = [0, 1]"] ;
103 -> 105 ;
106 [label="gini = 0.0\nsamples = 12\nvalue = [0, 12]"] ;
92 -> 106 ;
107 [label="X[45] <= 0.5\ngini = 0.375\nsamples = 4\nvalue = [3, 1]"] ;
91 -> 107 ;
108 [label="gini = 0.0\nsamples = 3\nvalue = [3, 0]"] ;
107 -> 108 ;
109 [label="gini = 0.0\nsamples = 1\nvalue = [0, 1]"] ;
107 -> 109 ;
110 [label="X[4] <= 30.5\ngini = 0.15\nsamples = 330\nvalue = [27, 303]"] ;
90 -> 110 ;
111 [label="X[1] <= 6465.5\ngini = 0.262\nsamples = 116\nvalue = [18, 98]"] ;
110 -> 111 ;
112 [label="X[45] <= 0.5\ngini = 0.215\nsamples = 106\nvalue = [13, 93]"] ;
111 -> 112 ;
113 [label="X[24] <= 0.5\ngini = 0.191\nsamples = 103\nvalue = [11, 92]"] ;
112 -> 113 ;
114 [label="X[16] <= 0.5\ngini = 0.177\nsamples = 102\nvalue = [10, 92]"] ;
113 -> 114 ;
115 [label="gini = 0.139\nsamples = 93\nvalue = [7, 86]"] ;
114 -> 115 ;
116 [label="gini = 0.444\nsamples = 9\nvalue = [3, 6]"] ;
114 -> 116 ;
117 [label="gini = 0.0\nsamples = 1\nvalue = [1, 0]"] ;
113 -> 117 ;
118 [label="X[1] <= 2026.5\ngini = 0.444\nsamples = 3\nvalue = [2, 1]"] ;
112 -> 118 ;
119 [label="gini = 0.0\nsamples = 2\nvalue = [2, 0]"] ;
118 -> 119 ;
120 [label="gini = 0.0\nsamples = 1\nvalue = [0, 1]"] ;
118 -> 120 ;
121 [label="X[0] <= 39.0\ngini = 0.5\nsamples = 10\nvalue = [5, 5]"] ;
111 -> 121 ;
122 [label="X[35] <= 0.5\ngini = 0.408\nsamples = 7\nvalue = [5, 2]"] ;
121 -> 122 ;
123 [label="gini = 0.0\nsamples = 5\nvalue = [5, 0]"] ;
122 -> 123 ;
124 [label="gini = 0.0\nsamples = 2\nvalue = [0, 2]"] ;
122 -> 124 ;
125 [label="gini = 0.0\nsamples = 3\nvalue = [0, 3]"] ;
121 -> 125 ;
126 [label="X[17] <= 0.5\ngini = 0.081\nsamples = 214\nvalue = [9, 205]"] ;
110 -> 126 ;
127 [label="X[5] <= 1.5\ngini = 0.144\nsamples = 115\nvalue = [9, 106]"] ;
126 -> 127 ;
128 [label="X[20] <= 0.5\ngini = 0.065\nsamples = 89\nvalue = [3, 86]"] ;
127 -> 128 ;
129 [label="X[24] <= 0.5\ngini = 0.025\nsamples = 80\nvalue = [1, 79]"] ;
128 -> 129 ;
130 [label="gini = 0.0\nsamples = 75\nvalue = [0, 75]"] ;
129 -> 130 ;
131 [label="gini = 0.32\nsamples = 5\nvalue = [1, 4]"] ;
129 -> 131 ;
132 [label="X[34] <= 0.5\ngini = 0.346\nsamples = 9\nvalue = [2, 7]"] ;
128 -> 132 ;
133 [label="gini = 0.0\nsamples = 7\nvalue = [0, 7]"] ;
132 -> 133 ;
134 [label="gini = 0.0\nsamples = 2\nvalue = [2, 0]"] ;
132 -> 134 ;
135 [label="X[32] <= 0.5\ngini = 0.355\nsamples = 26\nvalue = [6, 20]"] ;
127 -> 135 ;
136 [label="X[49] <= 0.5\ngini = 0.278\nsamples = 24\nvalue = [4, 20]"] ;
135 -> 136 ;
137 [label="gini = 0.0\nsamples = 13\nvalue = [0, 13]"] ;
136 -> 137 ;
138 [label="gini = 0.463\nsamples = 11\nvalue = [4, 7]"] ;
136 -> 138 ;
139 [label="gini = 0.0\nsamples = 2\nvalue = [2, 0]"] ;
135 -> 139 ;
140 [label="gini = 0.0\nsamples = 99\nvalue = [0, 99]"] ;
126 -> 140 ;
}
