digraph Tree {
node [shape=box] ;
0 [label="X[12] <= 0.5\ngini = 0.421\nsamples = 800\nvalue = [241, 559]"] ;
1 [label="X[0] <= 22.5\ngini = 0.486\nsamples = 477\nvalue = [198, 279]"] ;
0 -> 1 [labeldistance=2.5, labelangle=45, headlabel="True"] ;
2 [label="X[14] <= 0.5\ngini = 0.438\nsamples = 268\nvalue = [87, 181]"] ;
1 -> 2 ;
3 [label="X[13] <= 0.5\ngini = 0.422\nsamples = 254\nvalue = [77, 177]"] ;
2 -> 3 ;
4 [label="X[1] <= 7491.5\ngini = 0.405\nsamples = 241\nvalue = [68, 173]"] ;
3 -> 4 ;
5 [label="X[1] <= 1285.0\ngini = 0.392\nsamples = 235\nvalue = [63, 172]"] ;
4 -> 5 ;
6 [label="X[1] <= 1207.5\ngini = 0.479\nsamples = 83\nvalue = [33, 50]"] ;
5 -> 6 ;
7 [label="X[21] <= 0.5\ngini = 0.423\nsamples = 69\nvalue = [21, 48]"] ;
6 -> 7 ;
8 [label="X[4] <= 36.0\ngini = 0.491\nsamples = 46\nvalue = [20, 26]"] ;
7 -> 8 ;
9 [label="gini = 0.48\nsamples = 30\nvalue = [18, 12]"] ;
8 -> 9 ;
10 [label="gini = 0.219\nsamples = 16\nvalue = [2, 14]"] ;
8 -> 10 ;
11 [label="gini = 0.083\nsamples = 23\nvalue = [1, 22]"] ;
7 -> 11 ;
12 [label="gini = 0.245\nsamples = 14\nvalue = [12, 2]"] ;
6 -> 12 ;
13 [label="X[4] <= 25.5\ngini = 0.317\nsamples = 152\nvalue = [30, 122]"] ;
5 -> 13 ;
14 [label="gini = 0.438\nsamples = 34\nvalue = [11, 23]"] ;
13 -> 14 ;
15 [label="X[24] <= 0.5\ngini = 0.27\nsamples = 118\nvalue = [19, 99]"] ;
13 -> 15 ;
16 [label="X[50] <= 0.5\ngini = 0.252\nsamples = 115\nvalue = [17, 98]"] ;
15 -> 16 ;
17 [label="X[35] <= 0.5\ngini = 0.217\nsamples = 105\nvalue = [13, 92]"] ;
16 -> 17 ;
18 [label="X[39] <= 0.5\ngini = 0.119\nsamples = 63\nvalue = [4, 59]"] ;
17 -> 18 ;
19 [label="X[55] <= 0.5\ngini = 0.095\nsamples = 60\nvalue = [3, 57]"] ;
18 -> 19 ;
20 [label="gini = 0.219\nsamples = 16\nvalue = [2, 14]"] ;
19 -> 20 ;
21 [label="X[6] <= 1.5\ngini = 0.044\nsamples = 44\nvalue = [1, 43]"] ;
19 -> 21 ;
22 [label="gini = 0.0\nsamples = 35\nvalue = [0, 35]"] ;
21 -> 22 ;
23 [label="gini = 0.198\nsamples = 9\nvalue = [1, 8]"] ;
21 -> 23 ;
24 [label="gini = 0.444\nsamples = 3\nvalue = [1, 2]"] ;
18 -> 24 ;
25 [label="X[42] <= 0.5\ngini = 0.337\nsamples = 42\nvalue = [9, 33]"] ;
17 -> 25 ;
26 [label="gini = 0.266\nsamples = 38\nvalue = [6, 32]"] ;
25 -> 26 ;
27 [label="gini = 0.375\nsamples = 4\nvalue = [3, 1]"] ;
25 -> 27 ;
28 [label="gini = 0.48\nsamples = 10\nvalue = [4, 6]"] ;
16 -> 28 ;
29 [label="gini = 0.444\nsamples = 3\nvalue = [2, 1]"] ;
15 -> 29 ;
30 [label="gini = 0.278\nsamples = 6\nvalue = [5, 1]"] ;
4 -> 30 ;
31 [label="gini = 0.426\nsamples = 13\nvalue = [9, 4]"] ;
3 -> 31 ;
32 [label="gini = 0.408\nsamples = 14\nvalue = [10, 4]"] ;
2 -> 32 ;
33 [label="X[29] <= 0.5\ngini = 0.498\nsamples = 209\nvalue = [111, 98]"] ;
1 -> 33 ;
34 [label="X[15] <= 0.5\ngini = 0.479\nsamples = 78\nvalue = [31, 47]"] ;
33 -> 34 ;
35 [label="X[6] <= 1.5\ngini = 0.375\nsamples = 44\nvalue = [11, 33]"] ;
34 -> 35 ;
36 [label="gini = 0.307\nsamples = 37\nvalue = [7, 30]"] ;
35 -> 36 ;
37 [label="gini = 0.49\nsamples = 7\nvalue = [4, 3]"] ;
35 -> 37 ;
38 [label="gini = 0.484\nsamples = 34\nvalue = [20, 14]"] ;
34 -> 38 ;
39 [label="X[0] <= 47.5\ngini = 0.475\nsamples = 131\nvalue = [80, 51]"] ;
33 -> 39 ;
40 [label="X[18] <= 0.5\ngini = 0.496\nsamples = 110\nvalue = [60, 50]"] ;
39 -> 40 ;
41 [label="X[54] <= 0.5\ngini = 0.499\nsamples = 88\nvalue = [42, 46]"] ;
40 -> 41 ;
42 [label="X[15] <= 0.5\ngini = 0.488\nsamples = 78\nvalue = [33, 45]"] ;
41 -> 42 ;
43 [label="gini = 0.492\nsamples = 39\nvalue = [22, 17]"] ;
42 -> 43 ;
44 [label="gini = 0.405\nsamples = 39\nvalue = [11, 28]"] ;
42 -> 44 ;
45 [label="gini = 0.18\nsamples = 10\nvalue = [9, 1]"] ;
41 -> 45 ;
46 [label="gini = 0.298\nsamples = 22\nvalue = [18, 4]"] ;
40 -> 46 ;
47 [label="gini = 0.091\nsamples = 21\nvalue = [20, 1]"] ;
39 -> 47 ;
48 [label="X[53] <= 0.5\ngini = 0.231\nsamples = 323\nvalue = [43, 280]"] ;
0 -> 48 [labeldistance=2.5, labelangle=-45, headlabel="False"] ;
49 [label="X[21] <= 0.5\ngini = 0.44\nsamples = 55\nvalue = [18, 37]"] ;
48 -> 49 ;
50 [label="gini = 0.488\nsamples = 38\nvalue = [16, 22]"] ;
49 -> 50 ;
51 [label="gini = 0.208\nsamples = 17\nvalue = [2, 15]"] ;
49 -> 51 ;
52 [label="X[4] <= 31.5\ngini = 0.169\nsamples = 268\nvalue = [25, 243]"] ;
48 -> 52 ;
53 [label="X[1] <= 6465.5\ngini = 0.296\nsamples = 105\nvalue = [19, 86]"] ;
52 -> 53 ;
54 [label="X[4] <= 22.5\ngini = 0.249\nsamples = 96\nvalue = [14, 82]"] ;
53 -> 54 ;
55 [label="gini = 0.496\nsamples = 11\nvalue = [5, 6]"] ;
54 -> 55 ;
56 [label="X[24] <= 0.5\ngini = 0.189\nsamples = 85\nvalue = [9, 76]"] ;
54 -> 56 ;
57 [label="X[31] <= 0.5\ngini = 0.172\nsamples = 84\nvalue = [8, 76]"] ;
56 -> 57 ;
58 [label="X[0] <= 34.5\ngini = 0.14\nsamples = 79\nvalue = [6, 73]"] ;
57 -> 58 ;
59 [label="X[23] <= 0.5\ngini = 0.104\nsamples = 73\nvalue = [4, 69]"] ;
58 -> 59 ;
60 [label="X[46] <= 0.5\ngini = 0.081\nsamples = 71\nvalue = [3, 68]"] ;
59 -> 60 ;
61 [label="X[4] <= 30.5\ngini = 0.058\nsamples = 67\nvalue = [2, 65]"] ;
60 -> 61 ;
62 [label="X[16] <= 0.5\ngini = 0.032\nsamples = 62\nvalue = [1, 61]"] ;
61 -> 62 ;
63 [label="gini = 0.0\nsamples = 55\nvalue = [0, 55]"] ;
62 -> 63 ;
64 [label="gini = 0.245\nsamples = 7\nvalue = [1, 6]"] ;
62 -> 64 ;
65 [label="gini = 0.32\nsamples = 5\nvalue = [1, 4]"] ;
61 -> 65 ;
66 [label="gini = 0.375\nsamples = 4\nvalue = [1, 3]"] ;
60 -> 66 ;
67 [label="gini = 0.5\nsamples = 2\nvalue = [1, 1]"] ;
59 -> 67 ;
68 [label="gini = 0.444\nsamples = 6\nvalue = [2, 4]"] ;
58 -> 68 ;
69 [label="gini = 0.48\nsamples = 5\nvalue = [2, 3]"] ;
57 -> 69 ;
70 [label="gini = 0.0\nsamples = 1\nvalue = [1, 0]"] ;
56 -> 70 ;
71 [label="gini = 0.494\nsamples = 9\nvalue = [5, 4]"] ;
53 -> 71 ;
72 [label="X[1] <= 4558.5\ngini = 0.071\nsamples = 163\nvalue = [6, 157]"] ;
52 -> 72 ;
73 [label="X[23] <= 0.5\ngini = 0.016\nsamples = 127\nvalue = [1, 126]"] ;
72 -> 73 ;
74 [label="gini = 0.0\nsamples = 125\nvalue = [0, 125]"] ;
73 -> 74 ;
75 [label="gini = 0.5\nsamples = 2\nvalue = [1, 1]"] ;
73 -> 75 ;
76 [label="gini = 0.239\nsamples = 36\nvalue = [5, 31]"] ;
72 -> 76 ;
}
